#ifndef C_MLP_H
#define C_MLP_H

#define dtype float

/*
dtype w1[] = {
    -0.445371,  0.324039, -0.177638,  0.025281, -0.131716, -0.014088,  0.049240,  0.088052,  0.261981,  0.185080,
    0.253437,  0.158671, -0.337884, -0.015826, -0.450117, -0.234222,  0.319530, -0.209615, -0.145297, -0.248969,
    0.445135,  0.073712, -0.190644,  0.465720, -0.268109, -0.319830,  0.191638, -0.106204,  0.290370,  0.286600,
    -0.160797, -0.352717,  0.348418, -0.227029,  0.067501,  0.371882, -0.333530,  0.302885,  0.320925,  0.381000,
    0.242810,  0.042438,  0.348514, -0.429871,  0.412411, -0.232356,  0.205933,  0.000513,  0.160077, -0.332982,
    0.284923, -0.113537, -0.040797,  0.165514,  0.094682, -0.335984,  0.165898, -0.360138, -0.226556, -0.088369,
    0.097004,  0.067580, -0.467387, -0.219805, -0.186094, -0.232896, -0.312743, -0.399486,  0.067492, -0.027394,
    -0.290020, -0.267918, -0.159078, -0.043400,  0.265514, -0.280445, -0.081414, -0.016231, -0.271444, -0.264888,
    -0.308649, -0.174020,  0.291736,  0.415226, -0.309667,  0.143023, -0.441859,  0.272909, -0.008806,  0.252286,
    0.153252, -0.125371, -0.234573,  0.304578, -0.101358,  0.387908,  0.084461, -0.343828, -0.355416, -0.408393,
    -0.366552, -0.145805,  0.323116,  0.137687,  0.366815,  0.045774,  0.431171,  0.461896,  0.327402,  0.156714,
    0.281971,  0.379167, -0.007611,  0.281561, -0.137495,  0.445308,  0.222849, -0.171356, -0.012135,  0.055525,
    -0.036993,  0.409506,  0.187077,  0.448604,  0.159245,  0.201969, -0.080331, -0.255757, -0.191647,  0.367709,
    0.451462,  0.463445,  0.330726,  0.383800,  0.006644,  0.175263,  0.352838,  0.298639,  0.404415, -0.012297,
    0.460167, -0.136286,  0.308644,  0.406826, -0.454225, -0.100411, -0.082103, -0.189225,  0.193936,  0.219867,
    0.415902,  0.392218, -0.163892, -0.130250,  0.166980,  0.224535,  0.423486, -0.211085, -0.417861,  0.309534,
};


dtype b1[] = {0,0,0,0,0,0,0,0,0,0};

dtype w2[] = { 0.704254, 0.046422, 0.072256, 0.159811, -0.452552, 0.343912, -0.697916, -0.719013, -0.200024, 0.623200 };

dtype b2[] = {0};
*/

dtype w1[] = {
    0.565644,  0.384824, -0.042528, -0.264426,  0.472312, -0.282259, -0.014167, -0.528233,  0.622656, -0.373769,
    0.287381,  1.005889,  0.181242, -1.291967,  1.100194, -0.772200, -0.235354, -0.829178,  0.248697,  1.168082,
    -0.281433, -0.546903,  0.032876,  0.559641, -0.228221,  0.103177,  0.620234,  0.318789, -0.633047, -0.006017,
    0.047218,  0.084886, -0.134755,  0.645489, -0.277912,  0.517039,  0.651821, -0.285480, -0.003520, -0.437448,
    -0.161385, -0.442559, -0.035489,  0.570436,  0.079949,  0.741253,  0.291243,  0.586947, -0.180183, -0.177284,
    -0.396542,  0.055728,  0.112597,  0.317440, -0.177967,  0.211646, -0.254014, -0.166693, -0.414425,  0.561991,
    0.407785,  0.664266, -0.077182, -0.454090,  0.397967,  0.089694, -0.946674, -0.246415,  0.240792, -0.013765,
    -0.322740, -0.332058,  0.104680,  0.449407, -0.545375,  0.934457,  0.600992,  0.594059, -0.398014,  0.048134,
    0.199440,  0.236234, -0.549774,  0.362871,  0.128888, -0.064394,  0.194858,  0.173756, -0.087557,  0.147654,
    0.133639,  0.000841, -0.001098,  0.626147, -0.152287,  0.110689,  0.108449, -0.463610,  0.171219,  0.310098,
    -0.440701,  0.361575, -0.302418,  0.573317,  0.322387,  0.602443, -0.314726,  0.031837,  0.124628, -0.135573,
    0.159068, -0.059842, -0.526570, -0.010963,  0.311802,  0.360409, -0.103766,  0.363927, -0.428252,  0.085832,
    -0.080852,  0.010944, -0.331394,  0.068851,  0.145650,  0.842668,  0.369900, -0.027606, -0.326165, -0.271815,
    -0.219882, -0.526053, -0.540803,  0.893084, -1.002251,  0.007923,  1.298324,  0.295529, -0.469116, -0.790421,
    0.936136,  0.879596, -0.094900, -0.326074,  0.891442, -1.032957, -0.173408, -0.906972,  0.650875,  0.917579,
};

dtype b1[] = {
    -0.257286, -0.220656, -0.312300, 0.485314, -0.377361, 0.445350, 0.321995, 0.456795, -0.164362, -0.260494,
};

dtype w2[] = {-0.409050, -0.578690, -0.446989, 0.361227, -0.401546, 0.258594, 0.760240, 0.524665, -0.385637, -0.721390,};

dtype b2[] = {0.405319};

#endif
